//Numpy array shape [8, 14]
//Min -1.031250000000
//Max 1.500000000000
//Number of zeros 4

#ifndef W17_H_
#define W17_H_

#ifndef __SYNTHESIS__
weight17_t w17[112];
#else
weight17_t w17[112] = {-0.28125, 1.50000, 0.53125, -0.34375, -0.21875, 0.62500, -0.34375, -0.75000, -0.53125, 0.40625, 0.59375, 0.21875, -1.03125, 0.21875, 0.71875, -0.03125, -0.53125, -0.03125, 0.34375, 0.81250, -0.62500, 0.46875, 0.18750, 1.09375, 0.09375, 1.06250, -0.56250, 0.18750, -0.31250, -0.15625, 0.06250, 0.90625, 0.18750, 0.00000, 0.40625, 0.40625, -0.25000, 0.56250, -0.25000, -0.56250, 0.50000, 0.06250, -0.28125, 0.84375, -0.18750, -0.34375, 0.87500, 0.21875, 0.43750, 0.43750, 1.15625, 0.03125, -0.18750, 0.59375, -0.56250, -0.15625, -0.34375, 0.03125, 0.56250, 0.09375, -0.12500, -0.93750, -0.46875, -0.03125, -0.43750, -0.53125, 0.31250, -0.87500, 0.09375, 0.31250, 0.93750, -0.18750, -0.34375, 0.62500, 0.00000, 0.06250, -0.46875, 0.75000, -0.62500, 0.25000, 0.43750, 0.34375, -0.31250, -1.03125, 0.21875, -0.37500, 0.78125, 0.43750, 0.15625, 0.46875, -0.46875, -0.03125, 0.06250, 0.09375, -0.09375, 0.21875, 0.40625, 0.25000, 0.18750, -0.68750, -0.15625, 0.00000, -0.09375, 0.43750, 0.21875, 0.43750, 0.87500, -0.56250, -0.25000, -0.65625, -0.06250, 0.00000};

#endif

#endif
