//Numpy array shape [14, 8]
//Min -0.812500000000
//Max 0.750000000000
//Number of zeros 6

#ifndef W2_H_
#define W2_H_

#ifndef __SYNTHESIS__
weight2_t w2[112];
#else
weight2_t w2[112] = {-0.25000, 0.25000, 0.15625, 0.28125, 0.00000, 0.53125, -0.03125, -0.21875, 0.00000, -0.06250, -0.12500, 0.06250, -0.12500, 0.18750, -0.12500, 0.31250, 0.37500, -0.09375, -0.03125, -0.34375, -0.15625, 0.15625, 0.09375, 0.12500, 0.28125, 0.12500, 0.28125, -0.03125, 0.15625, 0.03125, -0.18750, 0.06250, -0.28125, 0.09375, 0.62500, -0.06250, 0.34375, -0.43750, 0.62500, -0.21875, 0.06250, -0.37500, 0.65625, 0.21875, 0.15625, 0.18750, 0.06250, -0.09375, 0.34375, -0.12500, -0.09375, 0.06250, -0.03125, 0.28125, 0.03125, 0.46875, 0.31250, 0.21875, 0.12500, 0.03125, 0.06250, -0.09375, -0.34375, 0.25000, -0.09375, 0.12500, -0.12500, -0.12500, 0.00000, 0.12500, -0.21875, 0.75000, -0.09375, 0.28125, -0.25000, -0.34375, 0.21875, -0.28125, 0.37500, -0.15625, 0.46875, 0.03125, -0.12500, -0.15625, -0.81250, 0.09375, -0.25000, -0.15625, -0.06250, -0.06250, 0.09375, 0.06250, 0.00000, -0.03125, -0.03125, -0.25000, -0.18750, -0.62500, 0.03125, 0.00000, -0.53125, -0.28125, -0.06250, -0.62500, 0.00000, 0.25000, 0.03125, 0.09375, 0.12500, -0.06250, 0.28125, 0.09375};

#endif

#endif
