//Numpy array shape [8, 14]
//Min -1.282188177109
//Max 1.276992678642
//Number of zeros 0

#ifndef W8_H_
#define W8_H_

#ifndef __SYNTHESIS__
dense_3_weight_t w8[112];
#else
dense_3_weight_t w8[112] = {0.3743051589, -0.5413875580, -0.7478557229, 0.2228883058, -0.0224284977, -0.0317463540, -0.1819281578, -0.2061777115, 0.5291689038, -0.4765513837, 0.0957308859, -0.1549302787, -0.4643926919, 0.3240582049, 0.1753990501, 0.7982294559, 0.7435240746, 0.3754308224, 0.0238401107, 0.4420041144, -0.1395191699, 0.1666010916, 0.2831746042, 0.0433494747, 0.1684315801, -0.0946652517, 0.9759367108, -0.1733925045, -0.1545183957, -0.0109936660, -0.2316187024, -0.7679429054, -0.0283406377, -0.8098970652, 0.3516406417, 0.6258762479, -0.6047839522, 0.6396139264, -0.9051598907, -0.1113773510, -0.0926643014, 0.5581214428, -0.3100419641, -0.7302460670, -0.3709797859, 0.2903057933, -0.1638929993, 0.6658211350, -0.0406950600, 0.4920674860, 0.2953414619, 0.3070670068, 0.8449792266, 0.0118421111, -0.0941966921, 0.1691371948, -0.1707099229, 0.1760884821, 0.4054670036, -0.6608362198, 0.1105767488, -0.4826580882, -0.0302431565, -0.9248680472, -0.8806957006, -0.7360492945, -0.5415820479, 0.1353184283, 0.2022513896, -0.7129659057, 1.2769926786, 0.1356009990, 0.1403938234, -0.0080163116, 0.1801911443, -0.0041871099, -1.2821881771, -0.1217570454, -0.0381980501, -0.1236167327, -0.0485893004, -0.0000633249, 0.1466943175, -0.2058595121, -0.3772820532, 0.0787264481, -0.0628488213, 0.6430620551, 0.1404126734, 0.3380265236, 0.5242702961, -0.3718357980, 0.6575150490, -0.3315732479, 0.4305700362, 0.0430779979, -0.3123478591, -0.0586125553, 0.5109084249, 0.0024456382, -0.4454759955, 0.3452464342, -0.1523838639, 0.3619818091, 0.1219325662, -0.0912136734, 0.2790544033, 0.0763501525, -0.1738684177, 0.5152787566, -0.4589834809, -0.2379644513};

#endif

#endif
