//Numpy array shape [14, 8]
//Min -0.812500000000
//Max 1.031250000000
//Number of zeros 7

#ifndef W2_H_
#define W2_H_

#ifndef __SYNTHESIS__
weight2_t w2[112];
#else
weight2_t w2[112] = {-0.03125, -0.25000, 0.46875, -0.09375, 0.03125, 0.18750, 1.03125, -0.12500, 0.18750, -0.46875, 0.03125, -0.28125, -0.25000, -0.09375, 0.15625, 0.50000, -0.28125, 0.37500, -0.12500, 0.12500, 0.21875, 0.15625, -0.12500, 0.25000, 0.03125, 0.15625, 0.18750, 0.43750, -0.06250, -0.06250, 0.37500, 0.09375, 0.00000, -0.50000, 0.00000, -0.03125, -0.25000, 0.12500, -0.21875, 0.31250, -0.28125, -0.81250, -0.21875, 0.46875, 0.12500, 0.12500, -0.21875, -0.34375, -0.15625, -0.28125, -0.09375, -0.34375, -0.31250, 0.00000, 0.34375, -0.56250, 0.00000, 0.25000, 0.18750, 0.15625, 0.06250, 0.31250, 0.21875, -0.21875, -0.09375, -0.06250, -0.06250, -0.03125, -0.25000, -0.71875, -0.59375, -0.46875, -0.56250, -0.28125, 0.03125, 0.31250, -0.12500, -0.12500, 0.12500, -0.12500, 0.00000, -0.15625, 0.00000, -0.09375, -0.28125, 0.25000, 0.03125, -0.15625, -0.25000, -0.34375, -0.50000, 0.06250, -0.34375, 0.56250, -0.25000, 0.28125, 0.09375, 0.53125, -0.09375, -0.50000, -0.50000, 0.15625, -0.18750, 0.40625, 0.62500, 0.12500, -0.09375, 0.00000, -0.15625, 0.06250, 0.21875, 0.46875};

#endif

#endif
